~o
<STREAMINFO> 1 13
<VECSIZE> 13<NULLD><MFCC_0><DIAGC>
~h "proto"
<BEGINHMM>
<NUMSTATES> 5
<STATE> 2
<MEAN> 13
 -1.856560e+01 -5.273495e+00 -6.555529e+00 -3.930501e+00 -4.977731e+00 -3.619038e+00 -3.624220e+00 -2.619722e+00 -1.930985e+00 2.127091e-01 -3.204021e-01 1.302870e+00 8.842734e+01
<VARIANCE> 13
 1.167725e+00 2.699451e+00 5.675793e+00 7.547387e+00 9.776041e+00 1.375568e+01 1.569399e+01 1.475665e+01 1.623014e+01 1.692051e+01 1.700913e+01 1.362205e+01 3.062793e+01
<GCONST> 5.362703e+01
<STATE> 3
<MEAN> 13
 -1.856560e+01 -5.273495e+00 -6.555529e+00 -3.930501e+00 -4.977731e+00 -3.619038e+00 -3.624220e+00 -2.619722e+00 -1.930985e+00 2.127091e-01 -3.204021e-01 1.302870e+00 8.842734e+01
<VARIANCE> 13
 1.167725e+00 2.699451e+00 5.675793e+00 7.547387e+00 9.776041e+00 1.375568e+01 1.569399e+01 1.475665e+01 1.623014e+01 1.692051e+01 1.700913e+01 1.362205e+01 3.062793e+01
<GCONST> 5.362703e+01
<STATE> 4
<MEAN> 13
 -1.856560e+01 -5.273495e+00 -6.555529e+00 -3.930501e+00 -4.977731e+00 -3.619038e+00 -3.624220e+00 -2.619722e+00 -1.930985e+00 2.127091e-01 -3.204021e-01 1.302870e+00 8.842734e+01
<VARIANCE> 13
 1.167725e+00 2.699451e+00 5.675793e+00 7.547387e+00 9.776041e+00 1.375568e+01 1.569399e+01 1.475665e+01 1.623014e+01 1.692051e+01 1.700913e+01 1.362205e+01 3.062793e+01
<GCONST> 5.362703e+01
<TRANSP> 5
 0.000000e+00 1.000000e+00 0.000000e+00 0.000000e+00 0.000000e+00
 0.000000e+00 5.000000e-01 5.000000e-01 0.000000e+00 0.000000e+00
 0.000000e+00 0.000000e+00 5.000000e-01 5.000000e-01 0.000000e+00
 0.000000e+00 0.000000e+00 0.000000e+00 5.000000e-01 5.000000e-01
 0.000000e+00 0.000000e+00 0.000000e+00 0.000000e+00 0.000000e+00
<ENDHMM>
