~o
<STREAMINFO> 1 39
<VECSIZE> 39<NULLD><MFCC_E_D_A><DIAGC>
~h "proto"
<BEGINHMM>
<NUMSTATES> 6
<STATE> 2
<MEAN> 39
 -1.856560e+01 -5.273495e+00 -6.555529e+00 -3.930501e+00 -4.977731e+00 -3.619038e+00 -3.624220e+00 -2.619722e+00 -1.930985e+00 2.127091e-01 -3.204021e-01 1.302870e+00 9.869215e-01 -1.551770e-03 -2.876319e-03 -3.114094e-04 4.570999e-03 6.414114e-03 1.223366e-03 1.127594e-02 -3.375700e-03 1.252385e-03 -2.282798e-03 -6.015224e-03 -5.643182e-03 1.902173e-06 5.253842e-04 8.187111e-04 -1.462650e-03 -8.626766e-04 -1.003532e-03 9.336720e-04 -2.471443e-03 8.733912e-04 -5.652165e-04 -1.248044e-03 1.097158e-03 3.730657e-04 -1.669248e-06
<VARIANCE> 39
 1.167725e+00 2.699451e+00 5.675793e+00 7.547387e+00 9.776041e+00 1.375568e+01 1.569399e+01 1.475665e+01 1.623014e+01 1.692051e+01 1.700913e+01 1.362205e+01 0.000000e+00 1.341033e-01 3.136683e-01 6.606636e-01 8.760756e-01 1.133860e+00 1.601008e+00 1.826081e+00 1.700763e+00 1.881795e+00 1.941089e+00 1.971661e+00 1.584702e+00 5.176111e-06 2.757946e-02 6.428105e-02 1.356349e-01 1.799729e-01 2.327459e-01 3.288527e-01 3.757352e-01 3.487651e-01 3.868870e-01 3.983709e-01 4.055095e-01 3.257820e-01 1.131308e-06
<STATE> 3
<MEAN> 39
 -1.856560e+01 -5.273495e+00 -6.555529e+00 -3.930501e+00 -4.977731e+00 -3.619038e+00 -3.624220e+00 -2.619722e+00 -1.930985e+00 2.127091e-01 -3.204021e-01 1.302870e+00 9.869215e-01 -1.551770e-03 -2.876319e-03 -3.114094e-04 4.570999e-03 6.414114e-03 1.223366e-03 1.127594e-02 -3.375700e-03 1.252385e-03 -2.282798e-03 -6.015224e-03 -5.643182e-03 1.902173e-06 5.253842e-04 8.187111e-04 -1.462650e-03 -8.626766e-04 -1.003532e-03 9.336720e-04 -2.471443e-03 8.733912e-04 -5.652165e-04 -1.248044e-03 1.097158e-03 3.730657e-04 -1.669248e-06
<VARIANCE> 39
 1.167725e+00 2.699451e+00 5.675793e+00 7.547387e+00 9.776041e+00 1.375568e+01 1.569399e+01 1.475665e+01 1.623014e+01 1.692051e+01 1.700913e+01 1.362205e+01 0.000000e+00 1.341033e-01 3.136683e-01 6.606636e-01 8.760756e-01 1.133860e+00 1.601008e+00 1.826081e+00 1.700763e+00 1.881795e+00 1.941089e+00 1.971661e+00 1.584702e+00 5.176111e-06 2.757946e-02 6.428105e-02 1.356349e-01 1.799729e-01 2.327459e-01 3.288527e-01 3.757352e-01 3.487651e-01 3.868870e-01 3.983709e-01 4.055095e-01 3.257820e-01 1.131308e-06
<STATE> 4
<MEAN> 39
 -1.856560e+01 -5.273495e+00 -6.555529e+00 -3.930501e+00 -4.977731e+00 -3.619038e+00 -3.624220e+00 -2.619722e+00 -1.930985e+00 2.127091e-01 -3.204021e-01 1.302870e+00 9.869215e-01 -1.551770e-03 -2.876319e-03 -3.114094e-04 4.570999e-03 6.414114e-03 1.223366e-03 1.127594e-02 -3.375700e-03 1.252385e-03 -2.282798e-03 -6.015224e-03 -5.643182e-03 1.902173e-06 5.253842e-04 8.187111e-04 -1.462650e-03 -8.626766e-04 -1.003532e-03 9.336720e-04 -2.471443e-03 8.733912e-04 -5.652165e-04 -1.248044e-03 1.097158e-03 3.730657e-04 -1.669248e-06
<VARIANCE> 39
 1.167725e+00 2.699451e+00 5.675793e+00 7.547387e+00 9.776041e+00 1.375568e+01 1.569399e+01 1.475665e+01 1.623014e+01 1.692051e+01 1.700913e+01 1.362205e+01 0.000000e+00 1.341033e-01 3.136683e-01 6.606636e-01 8.760756e-01 1.133860e+00 1.601008e+00 1.826081e+00 1.700763e+00 1.881795e+00 1.941089e+00 1.971661e+00 1.584702e+00 5.176111e-06 2.757946e-02 6.428105e-02 1.356349e-01 1.799729e-01 2.327459e-01 3.288527e-01 3.757352e-01 3.487651e-01 3.868870e-01 3.983709e-01 4.055095e-01 3.257820e-01 1.131308e-06
<STATE> 5
<MEAN> 39
 -1.856560e+01 -5.273495e+00 -6.555529e+00 -3.930501e+00 -4.977731e+00 -3.619038e+00 -3.624220e+00 -2.619722e+00 -1.930985e+00 2.127091e-01 -3.204021e-01 1.302870e+00 9.869215e-01 -1.551770e-03 -2.876319e-03 -3.114094e-04 4.570999e-03 6.414114e-03 1.223366e-03 1.127594e-02 -3.375700e-03 1.252385e-03 -2.282798e-03 -6.015224e-03 -5.643182e-03 1.902173e-06 5.253842e-04 8.187111e-04 -1.462650e-03 -8.626766e-04 -1.003532e-03 9.336720e-04 -2.471443e-03 8.733912e-04 -5.652165e-04 -1.248044e-03 1.097158e-03 3.730657e-04 -1.669248e-06
<VARIANCE> 39
 1.167725e+00 2.699451e+00 5.675793e+00 7.547387e+00 9.776041e+00 1.375568e+01 1.569399e+01 1.475665e+01 1.623014e+01 1.692051e+01 1.700913e+01 1.362205e+01 0.000000e+00 1.341033e-01 3.136683e-01 6.606636e-01 8.760756e-01 1.133860e+00 1.601008e+00 1.826081e+00 1.700763e+00 1.881795e+00 1.941089e+00 1.971661e+00 1.584702e+00 5.176111e-06 2.757946e-02 6.428105e-02 1.356349e-01 1.799729e-01 2.327459e-01 3.288527e-01 3.757352e-01 3.487651e-01 3.868870e-01 3.983709e-01 4.055095e-01 3.257820e-01 1.131308e-06
<TRANSP> 6
 0.000000e+00 5.000000e-01 5.000000e-01 0.000000e+00 0.000000e+00 0.000000e+00
 0.000000e+00 4.000000e-01 3.000000e-01 3.000000e-01 0.000000e+00 0.000000e+00
 0.000000e+00 0.000000e+00 4.000000e-01 3.000000e-01 3.000000e-01 0.000000e+00
 0.000000e+00 0.000000e+00 0.000000e+00 4.000000e-01 3.000000e-01 3.000000e-01
 0.000000e+00 0.000000e+00 0.000000e+00 0.000000e+00 5.000000e-01 5.000000e-01
 0.000000e+00 0.000000e+00 0.000000e+00 0.000000e+00 0.000000e+00 0.000000e+00
<ENDHMM>
